kernel
(1, 80)
[[ 0.18180887 -0.02183217 -0.17808007  0.03596529 -0.18067284 -0.10344208
   0.17022917  0.14744034  0.01487762  0.04687655  0.04408008 -0.02306239
  -0.20201941  0.07874861  0.14160211  0.01093928 -0.20329121 -0.13414508
  -0.07218774  0.11097553  0.05201225 -0.10804848  0.198676   -0.07670296
  -0.1861443  -0.04066963 -0.07170209  0.10635584 -0.05398045 -0.18664789
  -0.03070755 -0.1520963  -0.14730202 -0.05155374  0.10825233 -0.21249647
  -0.11334524 -0.1600967   0.16537707 -0.09888193  0.14535645 -0.09232699
   0.12473074 -0.0893098  -0.12595442 -0.13699463 -0.04658251 -0.0251768
  -0.07114373  0.00590532  0.15965693 -0.11419312  0.06107259 -0.0007535
   0.10012814 -0.01067566  0.11617526 -0.05444505  0.1565534   0.05422606
   0.11581907  0.18756814 -0.15600324  0.06748018  0.14124571  0.04756172
  -0.02892204  0.09625547  0.08737859 -0.11226595 -0.03718636  0.217792
  -0.01635177  0.03054774  0.08079567 -0.00917183  0.18645087  0.1627415
   0.03195024 -0.18697478]]
recurrent_kernel
(80, 80)
[[ 0.04603765 -0.1852931  -0.16103864 ...  0.12581168 -0.17545888
  -0.02396764]
 [-0.0454959  -0.2365388  -0.09958638 ... -0.14032608  0.05053868
   0.07691091]
 [ 0.05809005  0.07981732  0.07300036 ...  0.00538618  0.00249786
  -0.00493871]
 ...
 [-0.08899627 -0.18914987  0.01307818 ...  0.12763329 -0.10873146
   0.14946909]
 [-0.07288128  0.16064419  0.10980187 ... -0.09273511 -0.11715432
   0.04970241]
 [-0.02002993  0.07998376  0.11912895 ...  0.05271905  0.08181553
   0.07742497]]
bias
(80,)
[-0.04407367  0.01667239  0.02878099 -0.00556657  0.0257447   0.00942779
 -0.04660293 -0.03164907 -0.01185024 -0.02602446 -0.00895138  0.01898908
  0.03385263 -0.01326831 -0.02402581 -0.01025429  0.02303296  0.00934653
  0.01768162 -0.01846949 -0.00509499  0.01688696 -0.03596071  0.02764789
  0.03066619 -0.01541425  0.02103043 -0.03589254  0.00545578  0.04338806
 -0.00162838  0.02726205  0.03641798 -0.00534089 -0.00813126  0.04452203
  0.01923656  0.03130437 -0.03874981  0.0201066  -0.02303307  0.0230203
 -0.02974456  0.01066417  0.03215906  0.01657153  0.03454786 -0.00165719
  0.02277835  0.00622297 -0.04351176  0.04962684 -0.01438087 -0.01549079
 -0.0427705  -0.00107335 -0.03706965 -0.00918074 -0.02845035 -0.00803586
 -0.02034541 -0.03440027  0.01919615 -0.01776401 -0.0345405  -0.00527481
 -0.01291072 -0.012661   -0.01475101  0.01442054  0.00143088 -0.0298216
  0.00938114 -0.00080173 -0.02085453 -0.00468706 -0.03331374 -0.02228372
  0.0046643   0.04202766]
kernel
(80, 100)
[[-0.03407504 -0.05021384  0.16925485 ... -0.12891829  0.07211898
  -0.04905281]
 [ 0.09876574 -0.01596245  0.00615745 ... -0.0105186  -0.05076817
   0.10437245]
 [-0.08849511 -0.00832784  0.13142811 ... -0.15937033  0.00983096
   0.01912495]
 ...
 [ 0.16192873  0.10989844  0.0941699  ...  0.04142698 -0.09155377
   0.0789667 ]
 [-0.00270173  0.16153495  0.10924129 ... -0.09222455 -0.07708717
  -0.04370408]
 [-0.13130467  0.07731498 -0.04448085 ... -0.01537272  0.01106659
  -0.06853101]]
recurrent_kernel
(100, 100)
[[-0.10156757 -0.02491942 -0.08517435 ... -0.08994658  0.05642965
  -0.03178614]
 [-0.01471211 -0.01232721  0.00048145 ...  0.09055026  0.02792482
  -0.02307579]
 [ 0.10424221 -0.04707585 -0.0807448  ... -0.07723029  0.0372231
   0.0949378 ]
 ...
 [ 0.09660354  0.04707322  0.05072525 ... -0.02935708 -0.03859346
  -0.09472536]
 [-0.05120019  0.14064436  0.04860261 ... -0.06447693  0.10552354
   0.08191109]
 [ 0.03206429 -0.04875043 -0.08852316 ...  0.11291336  0.0337309
  -0.1109813 ]]
bias
(100,)
[ 0.02589592 -0.01368842  0.03330514 -0.02323766 -0.0123529  -0.02634372
  0.01523009 -0.00942495  0.00025783 -0.01726061  0.01717094  0.00210868
  0.01040356 -0.00795123  0.01764661 -0.00543786 -0.01527108 -0.01278571
 -0.0113736  -0.01698946  0.00605482 -0.00566323  0.00831174  0.01223151
  0.01127094 -0.00948983  0.01734744  0.00107089  0.01263829 -0.0083643
  0.01296787  0.01336917 -0.01677505  0.01377722 -0.00796164  0.01212359
 -0.00608488 -0.00482736  0.00736122  0.00051605 -0.00320957  0.0139044
  0.00541969  0.00923744 -0.01237977 -0.01683072  0.03843731  0.02477401
  0.01275709  0.02309837  0.01316187 -0.02408549 -0.01388564  0.0285737
 -0.00983827  0.00881998  0.03435357 -0.01503958  0.00257631  0.00718922
  0.01489106  0.00796815 -0.00014149 -0.01372429 -0.01041002 -0.01350713
  0.00987469 -0.01376863  0.01092374 -0.00042298  0.00485552 -0.0001825
  0.00704676 -0.00475039 -0.00273728 -0.01260304  0.0083365   0.01649508
 -0.00147383  0.0018749   0.02501185 -0.0116525  -0.01233721 -0.00628593
  0.01225785  0.00773247  0.01503267  0.02620194  0.0017416   0.00346949
 -0.0039492   0.01765373  0.02980713  0.00034747 -0.00216142 -0.01262069
  0.0065179  -0.00431014  0.01614667  0.01338663]
kernel
(100, 1)
[[ 0.08111589]
 [ 0.10090409]
 [ 0.13680857]
 [-0.08564285]
 [-0.03613757]
 [ 0.05935646]
 [ 0.03878903]
 [-0.13883802]
 [-0.17216335]
 [-0.20392217]
 [ 0.2035883 ]
 [-0.15318921]
 [ 0.0606394 ]
 [-0.0734816 ]
 [ 0.03649099]
 [ 0.04515579]
 [-0.03725703]
 [-0.05074068]
 [-0.06326886]
 [-0.18609293]
 [-0.14196883]
 [-0.13213687]
 [ 0.05963916]
 [ 0.18516956]
 [ 0.06299829]
 [-0.03920788]
 [ 0.18148747]
 [-0.08937515]
 [ 0.16577232]
 [-0.18352763]
 [ 0.19376522]
 [ 0.05865528]
 [-0.15790924]
 [ 0.04379629]
 [-0.0357096 ]
 [ 0.17670088]
 [-0.1132971 ]
 [ 0.11695217]
 [ 0.08992318]
 [-0.15156269]
 [-0.16370167]
 [ 0.17798738]
 [ 0.13070837]
 [ 0.16956231]
 [-0.16550457]
 [-0.0651855 ]
 [ 0.07806934]
 [ 0.0516098 ]
 [ 0.09199616]
 [ 0.12771195]
 [-0.00721359]
 [-0.18197297]
 [-0.06059801]
 [ 0.01901828]
 [ 0.03971441]
 [ 0.0330053 ]
 [ 0.0577735 ]
 [-0.1718049 ]
 [ 0.07735623]
 [ 0.12513629]
 [ 0.02209764]
 [ 0.15782483]
 [ 0.0487699 ]
 [-0.12214219]
 [ 0.0890986 ]
 [-0.0743992 ]
 [ 0.0448199 ]
 [-0.0242385 ]
 [ 0.07083806]
 [ 0.06828774]
 [ 0.11702698]
 [-0.16895112]
 [ 0.06404372]
 [-0.08258995]
 [-0.14909929]
 [-0.01851722]
 [-0.05692937]
 [ 0.15186264]
 [-0.06971715]
 [ 0.09237632]
 [ 0.07786009]
 [-0.01387841]
 [-0.1608211 ]
 [-0.14216052]
 [-0.10204394]
 [ 0.05851918]
 [ 0.18185395]
 [ 0.11033215]
 [ 0.05698648]
 [ 0.18284024]
 [-0.03314997]
 [ 0.14807357]
 [ 0.11021807]
 [ 0.04332135]
 [ 0.02957079]
 [-0.07405157]
 [ 0.05393658]
 [ 0.05137684]
 [ 0.09281173]
 [ 0.03909854]]
bias
(1,)
[0.09029815]
